-0.0753708 -0.0800993 0.0270229 -0.0195569
-0.2604964 0.1140006 0.0830331 0.0353810
-0.0666076 0.0480337 0.0507709 0.0999917
0.2607448 -0.0603850 0.0079826 -0.0494358
-0.1442127 0.0734564 -0.0956610 0.0075766
-0.0584357 0.1751398 -0.4237989 0.0137904
-0.0999892 -0.0070654 -0.0803586 0.1751594
-0.2889980 -0.0027541 -0.0985149 -0.0738318
0.2269866 0.0998051 -0.0494604 -0.1904343
0.0249043 -0.0370391 0.1028512 0.1436756
0.3841752 -0.3382924 0.0417305 -0.0177831
0.2188248 -0.4932379 0.0697572 0.2058442
0.0082227 0.1853438 0.1686641 0.1155724
0.2342128 -0.4588628 0.0423532 0.2186255
-0.3994535 -0.0194459 -0.0286740 0.2283286
-0.0123170 -0.2307056 0.0030377 0.0205640
0.0771228 0.2430023 -0.1687429 -0.0179250
0.0636742 0.2586993 0.0989053 0.1658107
0.1525755 -0.1797883 0.0153234 0.2658004
-0.1967881 0.1932820 -0.0113697 0.0988173
-0.3068221 0.1509102 0.0185227 -0.2312759
0.0344354 0.0996599 0.1115133 -0.0707333
0.2884024 -0.0463529 -0.2629241 -0.0882551
0.2468760 0.0800022 -0.2006884 0.2142947
0.1160026 0.0844201 -0.1828572 0.0431344
-0.0271976 -0.2628031 -0.0964453 0.2103382
0.0563722 0.1617454 0.0758703 -0.0283618
-0.0917272 0.1055096 0.0171341 0.2622615
-0.2320657 0.0680467 0.1005684 -0.0315645
-0.2617369 -0.2319239 0.0819700 0.0386329
0.0990970 -0.1714855 0.2635093 0.1300244
0.0412214 0.2618470 0.3115181 0.1425066
0.0249908 0.0307941 -0.1729909 -0.3545353
0.1526626 -0.1629289 0.0714178 -0.5131353
0.0453478 0.2922879 -0.0027614 -0.0163244
0.2060040 -0.2203669 0.1284822 -0.0971904
-0.0551424 0.0356710 0.0285799 -0.3771616
-0.2518660 0.1971171 0.1410269 -0.0390159
-0.2226763 0.1391606 -0.1081003 -0.0771460
0.1083124 -0.1801091 0.0427939 0.0173969
-0.1541514 0.0960560 0.1299043 -0.1799104
-0.1082528 0.1107093 -0.3058757 -0.0814192
0.1607336 -0.3925658 0.0452471 0.0805202
0.1747040 -0.2860055 0.1931282 0.2857653
0.1984724 0.0420986 0.0481835 -0.2036277
-0.1011903 0.2135864 0.0776673 -0.1908128
0.1284651 0.1678507 0.1306874 -0.3188048
-0.5964335 0.1173179 0.0420635 -0.0093851
-0.0274749 0.1374588 0.2328486 0.2143271
0.2422356 0.0830693 -0.2684419 -0.3265609
-0.0088512 -0.0444675 0.0551149 -0.0250568
-0.0065980 -0.0367456 0.3026634 -0.2545058
-0.1876051 -0.0162449 0.2252795 -0.0061893
0.1350804 0.1075318 -0.1812004 -0.0631497
-0.2841287 0.1827645 0.1640198 0.1370343
0.1729666 -0.1601164 0.0235509 -0.0743968
-0.1430714 -0.1277196 -0.0180251 0.1913534
-0.3619900 0.0497406 0.0580431 0.0573980
-0.1076685 -0.0126911 -0.3755543 0.1467558
-0.0784929 -0.0765893 -0.0436254 0.0437522
0.0766081 -0.0785524 -0.0847186 -0.1100787
0.1021562 -0.3172888 0.0897459 0.0361904
0.2760971 -0.0683040 0.0605239 -0.0167202
-0.3019483 -0.0725322 -0.1984467 0.0012796
-0.1810278 -0.1585827 0.0643898 0.1391592
-0.3103196 -0.1090667 0.0123246 0.0266108
0.1196783 0.0868908 -0.1586375 -0.0564045
0.1653819 -0.1922413 -0.0076774 -0.1527359
0.0244937 0.0225571 0.0087255 -0.1799484
0.1288209 0.1628867 0.0834438 -0.1406306
0.1557463 -0.1407262 0.0809562 0.0688192
-0.4512808 0.1455009 -0.0028608 0.0302198
0.0222081 0.1135342 -0.0685664 -0.0911429
0.1187091 -0.0464423 -0.2010313 -0.1437479
0.2622063 0.0644722 -0.0891264 0.1828003
-0.1067759 -0.0512355 -0.0295892 -0.0360564
-0.2230437 -0.0426034 0.0766220 0.1818906
0.0458860 -0.1278854 -0.0735394 0.1112659
-0.1175698 -0.4361995 0.1781539 0.1310381
-0.0726730 -0.0733155 0.1326891 -0.1046312
-0.2407195 -0.2251314 -0.1958168 -0.0181257
0.1141147 -0.0148796 0.1402691 0.2099703
-0.4021521 -0.1676776 -0.0006312 -0.0617387
0.0753644 0.0497301 -0.0817832 -0.0038241
-0.1789535 -0.1740025 0.0639420 -0.0160350
0.0838232 0.1297140 -0.0514087 -0.0832291
0.1216528 -0.0376458 -0.3275330 0.1578624
-0.1683894 0.0073442 0.1980635 -0.0705964
-0.1159306 -0.2567641 -0.0331856 0.4132040
-0.3154034 -0.3471827 -0.0463807 0.0800101
-0.3877827 -0.0280832 -0.0688913 0.1780820
0.2379605 -0.2454774 -0.2220003 0.1953570
-0.1186540 -0.0385225 -0.1043222 -0.1791113
0.1966912 0.1591605 -0.0161725 -0.0257550
-0.5067800 0.1884743 -0.1780607 0.0083016
0.0381740 -0.0800471 -0.0551022 -0.0026059
0.0539613 -0.1089796 0.0750230 0.0104213
-0.3725003 0.0906960 0.2284406 0.2309424
-0.0760081 0.0775869 -0.2104907 -0.0928616
-0.1449091 0.0576729 -0.1398025 0.0730136
0.1845182 0.1764178 -0.3338162 0.0270105
0.1586534 0.0193224 -0.2161998 0.0031679
0.1399192 0.2841521 0.2172177 0.1403487
-0.5285051 0.1316085 0.0239980 0.0703687
0.1453421 0.3399997 0.1306158 -0.0197163
0.1782244 -0.1996486 -0.1161947 -0.0726937
-0.2653355 0.1372930 -0.1842827 -0.3060969
-0.0698472 0.1701391 -0.2436115 0.0560726
-0.0642081 0.2377102 0.2748718 0.1411586
0.0232818 0.2725712 0.1936416 0.0634982
-0.0293791 0.1548834 0.1180388 0.0784272
0.0296007 0.2048684 0.1675266 0.1976542
0.2541290 -0.0148629 -0.0439827 -0.1071315
0.1069353 -0.2631317 0.0366649 0.1517579
0.1248009 -0.0005832 -0.1528223 -0.0549246
0.2600051 0.1662538 -0.1546201 0.1096957
-0.3791890 0.0541574 0.0300300 -0.0215425
0.2529032 0.0791529 -0.0546846 -0.0111406
0.2116780 -0.1066785 0.1626861 0.1367638
-0.3917659 -0.2342789 -0.0922024 0.0580395
0.0739413 0.2444609 0.2202239 -0.0010848
0.1040745 0.1656575 0.0310600 0.0175325
0.2322018 0.1691937 0.0300703 0.0484266
0.1309107 0.0811103 -0.0477535 0.0241043
0.2808921 0.1002939 -0.1583524 -0.1273052
0.1225350 -0.0413754 0.0560459 0.0584250
0.0597971 0.1355648 -0.0024504 -0.0114205
0.0069075 0.1294214 0.0448609 -0.0271459
0.0098351 0.1308784 0.0969086 -0.1483246
-0.1091003 -0.2373568 -0.1323368 0.2376589
-0.3090399 -0.0365383 -0.1146893 0.1496098
-0.1522051 -0.2974529 0.1520645 0.0691293
-0.0941737 0.1343603 0.0717113 0.1231990
0.1804361 0.0403007 -0.2383627 -0.1533639
0.2412247 0.0337019 0.1572714 -0.1281284
-0.1645992 -0.2477996 0.0013405 0.0393165
0.1391089 0.0403253 -0.2174220 0.0557355
0.0888387 -0.0096204 -0.1295704 0.1730084
0.1485755 -0.3147040 -0.1531344 0.2059088
0.1412411 -0.0421766 -0.0999746 -0.0073460
0.2491355 0.0937897 0.2827380 0.2135758
-0.2129040 -0.2365992 0.0801873 0.2376755
0.1465408 0.1069882 0.2049748 -0.1389714
0.0870946 0.1232510 -0.4048766 0.0638097
0.1556314 -0.3507679 0.1475492 0.1501358
0.0276997 0.0745423 0.0355729 -0.1894375
0.1894418 0.0845946 -0.0278463 -0.3008402
0.2388480 -0.0355054 -0.0070318 0.2606978
-0.0674429 -0.0134278 -0.0526417 0.0108064
0.0891387 -0.0587206 0.0246555 0.0103038
-0.2338429 -0.3880870 0.0087612 0.1603834
-0.1851806 0.0032882 -0.1608225 -0.1280698
-0.2488443 -0.3837562 -0.0196717 0.1050185
0.1491513 -0.1090433 -0.0893745 0.0449577
0.1323206 0.1000761 -0.0980886 -0.0698503
0.0205286 0.0240048 -0.3023430 -0.0633286
-0.1235602 0.2014571 -0.0331556 -0.0671700
0.0460942 -0.1886808 -0.1218336 -0.0985135
0.1108518 -0.2555855 -0.0449664 0.2723829
-0.2012369 0.1314043 0.2301213 -0.0818614
0.0081489 -0.0130773 -0.0293018 -0.3113855
0.1389021 0.1028626 -0.0246151 -0.0705937
-0.0934348 -0.0916923 -0.0261032 -0.0046114
-0.1636630 0.0367281 0.0309915 -0.0162773
-0.0620364 -0.1025540 -0.0414427 -0.0284669
-0.0703728 -0.1456216 0.2253971 0.0448986
0.0922160 -0.0297887 0.0245721 0.2183601
-0.1521107 -0.2255726 -0.0961660 0.1864317
-0.0099487 0.1805827 -0.0082433 0.2829263
-0.1349097 0.0586411 -0.0483400 0.0740191
0.1094231 0.3022664 0.2149031 -0.0996441
-0.1306793 -0.0829116 0.0055873 0.1558707
0.1129790 0.0193775 -0.0155500 -0.1715880
0.1378005 -0.2614451 0.0306526 -0.1747195
0.1427864 0.0683324 0.0877816 0.1077295
-0.1824695 0.1777344 0.2047742 -0.0699779
-0.2314436 -0.0936939 -0.0444390 -0.1783624
0.0930129 0.2765504 0.0002059 -0.0049995
0.0981314 -0.0936988 0.0702640 0.0067183
-0.0186711 0.0171453 0.0162056 0.0046553
0.0505529 -0.1711646 -0.1008629 -0.0866425
0.2104216 -0.1946947 -0.0492987 -0.1771541
0.1237386 0.0742866 -0.0158636 0.0278770
-0.1214766 -0.1346194 0.0678660 0.0159543
-0.0776013 0.0116351 0.2548203 0.1542922
-0.1003701 0.0912012 -0.2052414 -0.0182828
0.2677977 0.1765314 -0.0089274 -0.0073578
-0.1032807 0.1113066 -0.1953483 0.0612544
0.0578293 0.0475054 -0.1301829 0.1261956
0.0260556 -0.2309628 0.0683633 -0.0731050
0.1227338 -0.2464864 0.0461802 0.0050465
-0.0736931 -0.1306930 0.1230375 -0.0037295
0.0513568 0.1099630 0.1317108 0.0755260
0.1176653 -0.2001201 0.2748449 0.1905604
-0.2113291 0.0066398 -0.1792744 -0.1145819
0.1691036 0.1554366 0.0625434 -0.0242277
0.0519233 0.0233422 -0.1552225 0.0102652
0.2267244 0.0114871 -0.0345233 -0.0363026
-0.2771382 -0.2192401 0.1519749 -0.0307984
-0.1219610 -0.1561356 0.1181185 -0.0742618
0.0513800 0.0591348 -0.4330455 0.1706998
-0.3864326 0.0187030 0.0842982 -0.0505542
0.2321473 -0.0478835 -0.0074687 -0.0824107
-0.1216743 0.1427653 -0.1617217 -0.0556547
0.1651210 -0.1436599 -0.0120001 0.1027076
-0.1361689 -0.1368018 -0.0389971 0.3003146
-0.1272397 -0.0927463 -0.1019570 -0.0732396
-0.5805050 -0.1823780 -0.0600061 -0.0510040
-0.0384091 0.0759106 0.0944544 -0.1538691
-0.5219208 0.1025396 -0.0073966 -0.0685372
-0.3858228 -0.1135235 0.0119652 0.0092799
-0.1977824 0.2821994 0.1148756 0.2341249
0.1037103 0.0980264 -0.2501164 0.0437806
-0.4934022 -0.0694126 -0.1702947 0.2448218
-0.1673851 0.0861393 -0.2813521 0.2508345
-0.0537743 0.0530629 0.0561993 -0.3404113
0.1823228 0.0697468 0.2511894 -0.1468422
0.0264640 -0.0585659 -0.1722525 0.0412454
-0.0492296 -0.3728038 -0.1131400 0.1490145
-0.0133186 0.1768660 -0.2025133 0.0543629
0.0379945 -0.0853499 0.0281681 0.0479630
0.0018506 0.0473913 0.1259374 -0.0177192
-0.1816846 0.0297603 0.0104803 -0.1981541
0.0716179 0.1044534 0.0041812 0.0817452
-0.1594030 0.0780980 -0.0907927 -0.2148696
0.2602609 -0.2763539 0.0768434 -0.0888757
0.1133186 0.1435450 -0.0933367 -0.1205991
-0.1821286 0.1117715 -0.0055981 -0.2432814
0.2268932 -0.0889751 0.1860975 0.2565491
-0.2409826 0.1212241 -0.3525261 0.1466232
-0.2090449 0.0377502 0.1685006 -0.0068243
-0.2854264 -0.0168211 -0.3289953 0.0921619
0.1217329 0.1587886 -0.1607965 0.0030037
0.2609629 -0.0198919 -0.0141922 -0.0453380
0.0841163 -0.0432421 0.1301687 -0.0545329
0.1849422 -0.1760982 0.1156140 -0.1004360
-0.4024680 -0.2631138 -0.1865361 -0.0635464
0.2483550 -0.1611381 -0.3440783 0.1713750
-0.0492250 -0.0146985 -0.0182503 -0.1052000
-0.2424830 -0.3872447 -0.1064238 0.0058216
-0.2797708 0.0156467 -0.2124321 0.1756816
0.0724717 0.1856802 0.1859180 -0.0108435
-0.1788545 0.0484222 -0.1947204 -0.1114908
0.0857444 0.1828852 0.0034294 -0.2256212
-0.3763110 -0.0720857 -0.1621702 0.0274611
0.0922805 -0.0314864 0.0707947 0.2074029
-0.3852906 -0.0685993 -0.1917008 -0.1785302
0.2218561 0.0428093 0.1576622 -0.0661600
0.3755667 -0.0682160 -0.0971553 0.1961328
-0.2215871 -0.0387650 0.0534437 -0.0588302
-0.0331686 0.0386415 -0.1612363 -0.0947714
0.2571268 -0.0781520 -0.1451295 -0.1565458
-0.0464389 0.1483053 0.1069060 -0.0964746
-0.0405699 -0.1411204 0.0638666 0.1082605
-0.1192867 -0.0205104 -0.2979054 0.0536325
0.0386833 0.0775404 0.0488252 -0.3138368
0.2220978 -0.0082594 -0.0046862 -0.0102475
0.1694443 0.0136199 -0.3471396 0.0000805
0.1642469 0.0827222 -0.0732422 0.0378017
0.1129111 0.1389190 0.0579924 0.0049220
0.0213339 -0.0325178 0.2511285 0.0138603
-0.0257780 -0.0122634 0.0929165 0.0705197
-0.0332906 0.1755730 0.3256661 -0.0350365
0.1093594 0.0682633 0.0476472 -0.0982260
-0.1407335 -0.1346835 0.1363975 0.0696273
-0.1466473 0.1161427 0.0683515 -0.0859111
0.2519601 -0.0803813 -0.1875402 -0.0706578
-0.0576014 0.1237594 0.0186484 0.0408500
-0.4391367 0.1094165 -0.2628908 -0.2535307
-0.0084055 -0.1262082 0.1625195 0.0092868
-0.0942927 -0.0500398 0.1495074 -0.0288121
-0.1400167 0.0762542 -0.0884485 0.0454589
-0.5242733 0.0900095 -0.3940700 0.1522256
0.0876670 0.0089899 0.1254226 0.0135952
-0.0781001 0.0122602 0.0128032 0.0486353
-0.2663668 0.1950832 0.0450634 0.3618365
-0.8791500 0.1496592 0.1621367 -0.0465726
-0.9712919 0.0460792 0.1106394 -0.1285981
-0.8985450 0.1592536 0.2275770 -0.0259938
-0.9264854 0.1671373 0.2630297 0.1111679
-0.9399398 0.1835455 0.2164019 0.0215756
0.1394885 0.1575788 -0.1942965 0.2404897
-0.8563395 0.0220801 0.0414948 -0.0169354
0.0211534 -0.1180299 0.0362910 -0.1075086
-0.8677236 0.1132195 0.1470586 -0.0806537
-1.0561100 0.0999013 0.1838936 -0.0399553
-0.0598111 -0.0326262 -0.2067731 -0.0237354
-0.5025894 0.0801722 0.0387922 -0.1770070
-0.0496065 0.0514064 0.1040254 -0.0077616
0.1868436 -0.2455062 0.0547642 -0.1126765
0.0306962 0.0465056 -0.3673374 0.0434990
-0.9486417 0.0567566 0.1380436 -0.0427139
0.1423198 0.0440196 -0.0567585 0.1630466
-0.9450441 0.0739666 0.1213818 -0.0631824
-0.2100964 -0.4503940 0.1204892 0.2526701
0.2086706 -0.1847441 0.1105027 0.1861075
-1.1263602 0.0653499 0.1272107 -0.0648018
0.0018643 0.1293191 -0.0028805 0.0060971
-0.0880420 0.1316974 -0.0687350 -0.0978374
-0.5777411 0.0643865 0.1657496 -0.0179245
-0.0264725 -0.0316844 -0.1439602 -0.1032796
0.1828362 -0.0638878 -0.0285472 -0.0720375
-0.1879181 0.1761825 0.1746869 -0.0447720
0.2127414 -0.2527669 -0.0366173 -0.0409541
-0.9200957 0.1883370 0.2457283 0.0337497
-0.2560973 -0.2247923 0.1614356 -0.0612035
-0.0130052 0.0880735 -0.3529523 0.0966871
-0.6523213 0.1384455 0.2314178 0.1134677
0.3548897 0.0321782 0.1102002 0.0439716
-0.1988876 -0.0146303 -0.3080693 0.0273448
-1.1802326 0.0883062 0.1811731 -0.0415300
-1.0565661 0.1280057 0.1690681 -0.0150734
0.1357791 -0.2768729 0.0771158 0.0511131
0.1037910 0.1246799 -0.3275682 -0.1253300
0.0801866 -0.0438166 0.0764101 -0.2431044
-0.8491688 0.0985488 0.1616322 -0.0347840
0.1440026 0.1071224 0.1251294 -0.0726910
-0.8929471 0.1448326 0.1466853 -0.0915132
-1.0540769 0.1353855 0.1832062 -0.0235647
-0.9917919 0.1226344 0.1714359 -0.0829298
-0.3469972 -0.0607986 0.3879946 -0.0144314
-0.6697068 0.1675135 0.2329501 0.0478912
-0.9968920 0.0266081 0.1211678 0.0297822
-1.0396738 0.1809416 0.2501496 0.0237486
-0.2592852 -0.0243804 0.0951554 -0.1880431
0.2620282 0.0686376 -0.0036462 -0.0645429
0.1759874 0.0551523 -0.0531557 -0.1779974
0.1432798 0.1687566 0.2657157 0.1845687
0.0634873 -0.0046639 0.1323534 -0.0513246
0.1552912 0.1364721 0.0265022 -0.1102456
0.0899165 0.1436426 -0.1587907 0.0034027
0.3827404 -0.1137425 -0.1578340 0.0722705
-0.0292328 -0.1318302 -0.1157590 -0.0064918
0.1216594 0.2332344 0.0807521 -0.2214570
-0.0309551 0.0939279 -0.1206667 0.0708296
0.0637846 0.2197365 -0.1091982 -0.0307552
-0.0866612 -0.1797744 0.0518704 0.0449515
-0.0460452 0.1577180 0.3233418 0.1566872
-0.0060971 -0.1843653 0.1707728 -0.0333713
0.0517130 -0.2215566 -0.0295149 0.0221355
0.1092609 0.1363320 0.1006368 0.1985499
-0.1304764 -0.1803596 -0.0578139 -0.1005100
-0.0451826 0.0814663 -0.0776554 -0.1839618
-0.2974056 0.0658084 0.0099795 0.1336319
-0.0731016 0.0012970 0.0371482 -0.0191862
-0.1617419 -0.0854988 0.1329841 0.1112644
0.1957852 0.1188608 -0.0560795 0.0295721
-0.4449743 0.0288630 -0.0962695 -0.0368083
0.1761192 -0.0679495 0.0582505 -0.1191894
0.0591381 -0.1574951 0.1789829 -0.1421591
-0.4445278 0.0716201 0.1651996 0.1191831
0.2676694 0.0171463 -0.0835385 -0.1461136
-0.1251845 -0.0594919 0.2425853 0.1637657
0.1774050 -0.0292334 0.0701757 -0.0472108
0.0869548 0.1950676 -0.0339623 -0.1837921
-0.4118275 -0.2810718 0.1091192 -0.0546484
-0.0814569 -0.0831970 -0.0483942 -0.0157023
0.0322854 0.0712733 0.0310784 0.1262687
0.0096138 -0.1927409 -0.0937873 -0.0079021
-0.6589068 -0.1953787 -0.0962690 -0.0644249
-0.2799924 -0.1393597 -0.0124214 0.4043595
0.1663956 0.0888460 -0.1928386 0.0648708
0.0897910 -0.2240429 0.2472903 0.2568049
-0.2426738 -0.1361433 -0.0123611 -0.1834216
0.0385693 -0.1457104 0.2622083 0.1559173
0.1860891 -0.1426469 0.0527398 0.1059766
-0.0538256 0.1992224 -0.2919484 0.1006710
0.1284555 -0.3209531 0.0080676 0.1871950
0.0273895 0.0320827 -0.0253733 -0.1829320
-0.2346524 0.1027117 -0.1214901 0.1010307
-0.0148256 -0.2959483 -0.1353507 0.1138672
-0.0502269 -0.0200745 0.0285593 -0.0368136
0.0591315 0.3057010 0.0092995 0.1991872
-0.2515560 0.0888966 0.0582219 -0.1936041
0.2128709 -0.1320608 -0.0359100 -0.0247247
-0.0575238 -0.3157161 0.1044391 -0.1308689
0.0883909 0.2712384 0.1849726 0.1062577
-0.0057310 -0.0402696 0.2428135 0.0785684
0.1091790 0.0200325 -0.1124239 -0.0810815
-0.1553466 -0.0414267 0.0784292 -0.1221781
-0.4733522 -0.1999087 0.0031307 -0.2638247
-0.1563893 0.1443040 0.0160607 -0.0514004
-0.3853684 0.0326566 -0.3004163 0.1444303
0.2766284 0.1903545 0.1176040 -0.1220946
0.2747488 -0.0346099 -0.2056371 -0.2137091
-0.0708179 0.1013785 -0.2541950 -0.4396040
0.1457264 0.0412753 -0.0502779 -0.2563398
0.2389220 -0.0001674 0.1896620 -0.1952699
0.0116383 -0.1760264 0.1596690 0.0671889
0.2177757 -0.2872944 0.1110329 0.0838946
0.2893308 -0.1413614 -0.1442828 0.1457666
-0.3734386 -0.0636639 -0.2357780 0.1234516
0.1606939 -0.1086787 0.0872911 -0.0426174
0.1888512 0.0871841 0.0816610 -0.1237858
0.0285945 -0.0307888 0.0643260 0.0365740
0.0461230 0.1871925 0.1658683 -0.0834132
-0.2465599 -0.1355457 -0.0502545 -0.0929498
-0.4573051 -0.0123753 0.0479869 -0.1921712
0.1548934 -0.0947663 -0.1594857 0.0929959
-0.0082238 0.1346588 0.0798893 -0.0280268
-0.2232899 -0.2239821 -0.3334234 -0.0883514
0.2345984 0.1899301 -0.0871940 -0.1861237
-0.3906570 -0.0686022 0.1230899 -0.0656225
0.0710112 0.1286338 0.0204769 -0.0314241
-0.0444957 -0.0362451 -0.1882774 -0.2259604
-0.2713085 -0.0606644 0.0337598 0.0561445
-0.0183986 -0.0693540 0.0573279 0.1646098
-0.0826846 0.0589248 0.0672640 -0.1423082
0.0990723 -0.0979453 0.0282802 -0.0221809
0.0855308 -0.1925448 0.0828245 0.0524620
0.2037521 -0.0810832 0.0598485 -0.1465089
-0.0763090 -0.0826841 0.0257572 0.0466237
0.2044742 -0.1932673 0.0622288 -0.0968611
-0.1718511 -0.1287149 0.0102424 0.0820891
0.1453589 -0.1387422 -0.2083589 -0.3616107
0.1248299 0.1224792 0.0172044 0.0649022
0.1581247 -0.0731301 -0.0580245 -0.2217351
-0.1623674 -0.0516643 -0.1876749 0.0237700
-0.1064716 0.0935404 -0.2367648 0.1546818
0.2326418 -0.4825849 0.0986862 0.0691773
0.0787036 -0.0278436 -0.2033987 0.1405703
-0.1476348 -0.1049685 -0.0606811 -0.1341313
0.2596694 -0.3914234 0.0438782 -0.2169439
-0.3495005 -0.0449446 0.1407921 0.1440900
-0.0331332 0.0259681 0.2300234 -0.0423396
-0.0679982 -0.1351882 -0.2861536 -0.0863147
-0.1597059 0.0370760 -0.3427342 0.2189468
0.1542247 -0.0322648 -0.2979299 0.2394716
0.0560691 0.0323326 0.0412819 -0.0473032
0.1783277 0.0443666 -0.3235498 -0.1190993
-0.0948665 -0.1291921 0.0424029 -0.0358150
0.1775747 0.1817941 0.2076092 -0.1106828
0.0407351 -0.1961672 0.2427150 -0.0112267
0.1978841 -0.1110518 -0.1906734 0.3146993
0.1568667 0.1079281 -0.0491215 -0.3141201
0.0047001 0.2312417 -0.2471337 0.3446906
-0.0084575 -0.3831919 -0.0242841 0.1001284
0.1979011 0.1832750 -0.0895750 0.1604448
-0.0677919 0.0964695 0.1031068 -0.1802229
0.1027635 0.0096277 -0.0126938 -0.0630279
0.1259391 -0.2733903 0.0184506 -0.0259837
-0.1777730 -0.2716587 -0.2595205 0.0453135
-0.3457449 0.1437823 -0.2501852 0.0864825
-0.0331984 -0.0154494 -0.0214252 -0.1651688
0.0466786 -0.2665805 0.1469272 0.1575023
-0.3444749 0.0769701 0.1717403 0.1016401
0.0444822 0.0837043 0.0271610 0.1600548
0.0557665 0.0829383 -0.3923345 0.1241003
0.0490331 -0.0181751 -0.0961142 0.1290828
0.0325571 -0.0858736 -0.1918661 0.0004599
0.0482051 -0.2478158 0.3864098 0.4580332
-0.3214943 -0.0431385 0.0578190 0.1000557
-0.2438155 0.0036754 -0.0224864 -0.0131429
0.0146932 -0.1035102 -0.1119662 0.0108657
0.1446611 -0.0255731 -0.1959903 -0.2021576
-0.0780648 0.1285283 -0.0928878 0.0902743
-0.0970651 0.1524997 0.1030543 -0.0608589
-0.1647466 -0.0630291 0.1112305 0.0413537
0.0539587 -0.0950717 -0.2853777 0.1832514
0.0516833 -0.0056494 -0.0890409 0.0181719
0.0964512 -0.0692623 0.1890764 0.1111916
0.0203312 -0.2037108 -0.0777510 0.1015428
0.0546371 0.2397432 0.0998955 -0.0465732
0.2732262 -0.0576583 0.2535039 0.1866865
0.1878724 0.0042454 0.0010789 -0.0232677
0.0466858 0.0586653 -0.2242901 -0.1093809
0.1516082 -0.1224041 -0.0667884 -0.0693844
0.1958527 -0.2187483 -0.3905472 0.1906409
0.0175850 -0.0820389 0.0603338 -0.0850039
0.3318422 0.0894438 -0.0865217 -0.0734176
0.1701121 -0.1118683 -0.2021973 -0.2987433
0.0324899 -0.1432790 0.1740061 0.0138353
-0.0145135 0.0319007 0.1956113 0.0447431
-0.0122546 -0.3126066 0.1276912 0.0835842
-0.0152626 -0.0355397 -0.1311654 -0.2073069
0.1889720 0.0003697 -0.3391871 0.2263445
-0.3191121 0.1596821 0.0953696 0.0668391
0.1148317 0.0078326 0.0718189 0.1493094
0.2696548 -0.3006356 0.0541258 -0.1037282
-0.0115949 0.2277177 0.0173066 0.1611751
0.0832356 -0.2750323 -0.2106810 0.0481544
-0.2568974 -0.5697975 -0.0505450 -0.0107643
0.0434903 -0.2242416 0.0628993 0.0315472
-0.6284396 -0.0749976 -0.0776042 0.1233564
-0.0704970 0.1349982 0.1076432 -0.2051777
-0.2694501 -0.0731939 -0.1284368 0.0290410
-0.3610556 0.2398120 -0.0330289 0.0604674
0.0285403 0.1110675 0.3812151 -0.0196643
0.0998609 0.0467036 0.1117303 -0.2206634
0.0751273 0.1392571 -0.2765642 0.2015328
-0.2017543 -0.0056621 -0.0064883 -0.0774713
0.0033728 0.2229397 -0.0900064 0.1644401
-0.1763196 0.1342515 0.0023132 -0.1422210
0.0468045 -0.4188305 -0.0392405 -0.1551984
0.3136013 -0.2017533 0.1307072 -0.0092479
0.1234042 -0.1188923 -0.2770383 0.0816186
0.1255252 0.0730289 0.0917572 -0.1465495
0.1402228 -0.1477427 0.1544271 0.1810719
-0.2205191 0.0663427 -0.2500540 -0.0661158
0.1264516 -0.3387530 0.0598910 0.0115710
0.3217677 -0.0387921 0.1960837 0.0797398
-0.4098200 0.2019320 0.0327802 0.0333131
-0.0347248 0.0953226 -0.2997373 0.1476391
0.1575256 0.1945442 -0.2573375 -0.0787009
0.0624854 0.1384949 -0.0591507 -0.0726332
-0.0897729 -0.0440668 0.1721856 0.0058366
0.1653268 -0.1083280 -0.3695765 0.2374036
0.1624897 0.1459843 -0.0986011 -0.2462450
-0.0923328 0.1223288 0.0763075 -0.0328870
-0.6554611 -0.0308099 -0.0528973 -0.2019560
-0.1565512 0.1799685 -0.2214453 0.2255965
0.0738782 0.1875293 -0.0389429 0.0907588
-0.0911736 0.0314292 -0.0000230 0.0968063
0.1051039 -0.0769650 0.0070976 0.1853180
0.1568326 0.1163828 -0.0073883 -0.0707501
0.0054843 0.0415260 -0.0538593 -0.1481718
0.0054224 -0.0189134 -0.2595274 -0.1277264
0.1258120 -0.0606649 -0.0396919 -0.2596288
-0.1317398 0.1655011 0.0310239 0.1796801
0.0754796 -0.0088685 0.0499627 0.0417215
0.0148324 -0.0283149 -0.1975342 0.1000107
-0.0149458 0.0807233 -0.1301173 0.0838184
0.0517207 0.2258885 -0.0924287 0.0407161
-0.0525119 -0.0809287 0.0679387 -0.0300574
0.0246170 0.0782623 -0.0368423 -0.1869940
0.1471829 -0.1480569 0.0399460 -0.1458435
0.0100987 -0.0485813 0.0054568 0.0887416
-0.0936370 -0.0364729 -0.1394235 0.1791546
0.0551666 0.1610231 0.0211628 0.0777295
-0.0750351 -0.2141798 -0.1686005 -0.1056603
-0.1410170 -0.1248806 -0.1710583 0.0407411
0.0525985 0.0017090 0.0765585 0.0052589
0.1259475 -0.0105648 0.1217999 0.0493416
-0.3765985 0.1906981 -0.1642120 0.1520420
0.2181448 -0.0745261 0.0469971 0.0918643
0.1570517 -0.2277130 -0.0017762 0.1802109
-0.0006046 -0.0396358 -0.0939407 -0.1827116
-0.1717421 0.0010528 -0.1340060 -0.1433809
0.2682270 0.0387906 0.1185860 -0.0752208
0.1954692 0.0873106 0.0007776 -0.0872503
-0.6067173 -0.0367142 -0.1011439 0.0548998
-0.0315790 0.1159398 -0.3911278 0.1534001
0.1849264 -0.1739891 0.0971846 -0.0147593
0.1737796 0.0633704 -0.0850625 -0.0600078
0.0082106 0.1230292 0.1363239 0.0800360
-0.1113382 -0.0063674 -0.0649133 -0.0432795
0.1517491 0.0574040 -0.0815254 -0.0737720
-0.1527700 0.0929845 -0.1829893 -0.1100041
-0.1394304 0.0176690 -0.0826669 -0.1840951
-0.0152549 0.1994496 -0.0316507 0.0548348
-0.0098942 -0.1860181 0.0430603 -0.0349602
0.1910079 -0.2125358 0.0827240 0.0443161
-0.5854837 -0.0021554 0.0501546 -0.0939681
0.2377743 -0.3047488 0.2096780 -0.2699923
0.0035298 -0.0135436 -0.0318267 0.2014608
-0.3763597 -0.0224040 -0.0126846 -0.0603612
0.0864216 0.1066560 -0.1737513 0.0035118
-0.1716024 0.2214114 0.1725083 0.0693139
0.3937981 -0.1474991 0.1005743 -0.0501019
0.2326472 0.1455303 0.0507824 -0.0109062
0.0157899 -0.1483314 0.3046218 0.0651593
0.1434700 -0.1306856 0.0474557 -0.1621580
0.1687123 -0.1822652 -0.0400898 -0.0548563
-0.2677801 -0.2230464 -0.2279723 0.1801607
-0.5836232 0.0728479 -0.2842359 0.1540162
-0.2695931 0.0994333 -0.1411048 0.1235054
-0.1105869 -0.0584126 -0.0626762 0.0728655
-0.0189717 -0.1009888 0.0266625 0.3702830
0.1070212 0.1314928 -0.0397080 0.0029266
-0.6471617 -0.0939596 -0.0667346 -0.1186537
-0.1833619 0.0370070 0.0248052 -0.0349362
-0.2219160 -0.0511131 -0.4968017 0.0108344
-0.2784565 -0.4253650 -0.1280577 0.1606711
0.1417062 0.0108507 -0.1003229 0.0345495
0.1222521 0.2369220 -0.0782835 0.2183445
0.2059613 0.0662270 0.0506004 -0.0224429
0.0395409 -0.0737706 0.0681700 0.0698418
-0.2184625 -0.0423406 -0.1856439 0.0640858
0.1008213 -0.2811207 0.0637662 -0.2762870
-0.2691655 -0.0644075 -0.0906214 -0.0457693
-0.0883426 0.1491888 0.0322752 0.0766327
0.3005385 -0.2034828 0.0829317 -0.2164449
0.1187507 -0.1066390 0.1135914 -0.0674237
-0.0635734 0.0597857 -0.0046529 -0.0346031
-0.0941398 -0.1409906 0.1971297 0.1159623
0.0286771 -0.0178482 -0.0275506 0.0082024
-0.3636522 0.1432721 0.1713610 -0.0325162
0.0900371 0.0459946 -0.1633248 0.1960673
-0.5987798 -0.0808748 -0.1425541 -0.1424607
0.0019221 -0.0101147 -0.0869624 -0.0650212
0.0052006 -0.0658039 0.0126686 -0.1501404
0.2649265 0.1650998 0.0488343 -0.1703859
-0.1196206 -0.2669692 0.0322658 -0.0122281
0.0900715 0.1712567 0.0775619 -0.0189002
0.1447656 0.0408325 0.0639058 -0.1590107
0.0661498 0.2098801 -0.3299958 0.1921320
-0.0768501 0.1347227 0.0449757 0.0291329
0.1822401 0.0029888 -0.0414452 0.0437785
0.0672528 -0.0227644 -0.0725863 -0.0255936
0.1775618 0.0895784 -0.2487681 0.0689083
-0.5081729 0.0602036 -0.2665093 0.0503919
0.0690237 0.1354273 0.0400197 -0.0159433
0.3347635 -0.1360881 -0.1590724 0.0720860
0.1183886 0.1854807 -0.2744793 0.2781309
-0.0559978 -0.0598095 -0.2943612 0.0666795
0.0579018 0.1616267 0.0969363 -0.1355548
0.1294216 0.1565952 -0.0027771 -0.1309092
0.2392800 -0.1801435 0.1238916 0.1490970
-0.1279950 0.2354393 0.2230947 -0.1563451
0.1332113 -0.2679137 -0.0013911 -0.0263777
0.2361966 -0.0439780 0.0359687 -0.2814816
-0.2079441 0.1542093 0.1437059 0.0386706
0.0832884 0.0588184 0.0526343 -0.2745660
-0.4914970 0.0760310 0.0961132 -0.1240072
0.0516701 0.1649913 0.1787277 -0.0812012
0.4087150 0.1895525 0.1341581 -0.0678228
-0.0268517 -0.3216835 0.0070138 0.0833656
-0.0967487 0.2192290 0.2019519 0.0304762
0.0097732 0.3076424 0.1933194 -0.0277598
-0.1238910 -0.0396090 0.0256011 -0.0311551
0.1446012 0.1128713 0.0309596 -0.1530237
-0.1721389 0.1616616 0.0309932 0.3600340
0.2573367 0.1075704 0.1304598 -0.2190372
0.0133734 -0.0195824 -0.1425858 -0.1556611
-0.1445530 -0.0204563 -0.0726183 -0.1133519
-0.0468712 0.0104160 -0.1093804 0.0460448
0.1503717 -0.0093332 -0.1240818 0.1013681
0.1234652 -0.1629083 -0.0613071 0.2679531
0.1921121 0.2677142 0.1212085 -0.0102423
-0.1045361 0.1434353 0.0393008 0.2941708
0.0724509 0.2573258 0.2037651 0.0949644
-0.1677485 -0.3554626 0.0289502 -0.0638496
0.1319040 -0.3078859 0.1687557 -0.0516513
0.1260766 0.0538952 -0.0720705 -0.0591180
0.2363265 -0.1111731 0.1529312 0.0848430
0.1245507 0.0338662 -0.0329095 -0.2761754
-0.1091853 0.1759169 0.0986504 0.0107244
-0.2879723 -0.0630899 -0.1033012 -0.0082208
0.0504532 -0.2873210 -0.1993863 0.3546494
0.0329944 -0.0313245 0.2998080 -0.0223254
0.0910248 -0.2489864 -0.0002350 -0.0470182
-0.0253870 -0.2000237 0.0648239 -0.0748566
-0.1232854 0.1172856 0.0571130 -0.2731086
0.0349062 0.1540742 -0.0654176 0.1705900
-0.7977704 -0.0633859 0.0327293 -0.0917339
-0.5560150 0.0971455 0.0800100 -0.0381094
-0.1939013 -0.0086721 0.0197538 0.0158671
0.0149791 0.1884044 0.0268175 -0.2408510
-0.4276412 0.0263306 0.0706929 -0.0646365
-0.2954594 0.1114116 0.0036885 0.0393486
0.1877284 0.1327331 -0.1901449 0.1028998
0.0373972 0.0031537 -0.0795412 0.1181138
0.1831864 -0.1567328 -0.0232712 -0.0201796
-0.0522388 0.2450517 0.0427071 0.0560879
-0.1824127 0.0041560 -0.1748919 -0.0948986
-0.2831552 -0.1572452 0.0425369 0.0208290
-0.0415159 -0.3943089 0.0797114 -0.0931585
0.3170747 -0.0220089 0.0716113 -0.0478221
-0.2529644 0.0263918 -0.0905539 0.0932723
0.2623884 0.0280855 0.0369996 0.1135195
0.1975480 -0.0556316 0.0021702 -0.0654198
0.1427492 0.0254439 -0.2213211 -0.0453510
0.1258783 0.0717256 -0.0164755 -0.3337171
-0.1441203 -0.1158165 0.0202679 -0.0701832
-0.1341688 -0.1778519 -0.2573717 0.1564378
-0.2754853 0.0396388 -0.0135766 -0.0787886
-0.1131080 -0.3502870 0.0799559 0.1086337
-0.1468185 -0.1136561 -0.0506676 0.0694374
-0.2965396 -0.0699207 0.0552223 0.0392849
0.1659588 0.0552013 0.1410163 0.1027292
0.3721202 0.2176982 -0.2586007 -0.0837236
-0.0362905 0.1700386 0.0089624 0.0877910
0.2586767 0.2125941 0.1685425 0.2285517
0.3531967 -0.0347258 0.1584977 -0.0256520
-0.1077978 -0.1910879 -0.1517906 0.1047266
0.1099488 -0.1737051 -0.0056415 -0.1441046
0.1434784 -0.0007723 -0.0973281 -0.0493592
-0.1245453 -0.2245821 -0.0085509 -0.1183363
-0.0912013 -0.2214118 -0.1058508 0.0415576
0.2870142 0.0865804 -0.2047327 0.1559074
0.0770491 0.0921991 -0.1574566 -0.0411694
0.1961318 -0.1472120 -0.0268155 0.3031346
-0.0320651 -0.2276412 -0.1350546 -0.1082005
0.0458727 0.0109171 -0.1626046 0.0750115
0.1068377 -0.0924795 0.0759715 -0.0333159
0.0646423 0.0957659 -0.2605492 0.0798024
-0.2948289 -0.2222024 -0.1280500 0.3621992
-0.1617048 0.1908398 -0.0362224 -0.0020415
0.2267790 -0.1848776 0.2408078 -0.1353814
-0.1265150 -0.0350179 -0.0727103 0.0709288
0.1593253 0.1042578 0.0523109 0.0737928
0.4004371 -0.4562099 -0.1543913 0.0022380
-0.0188893 0.1393958 0.1665712 -0.0728826
-0.2224998 -0.0686720 -0.1368037 0.0449790
-0.1386328 0.1244661 0.1606759 -0.1405547
-0.3235095 -0.0788245 -0.4747568 0.3159542
0.1591182 -0.2065557 0.0733227 -0.0464611
-0.2107933 0.0488727 -0.1314469 -0.2215564
-0.0563370 -0.0270449 -0.0892519 -0.0744711
0.1147109 0.1492696 -0.2105506 0.1176016
-0.8485575 0.0414117 0.0343783 -0.1383745
0.0994015 0.0823452 -0.0196498 -0.0496789
0.0636557 -0.0240714 0.0718167 -0.1572907
-0.1735969 -0.2199973 0.0346996 -0.2076797
-0.2076261 -0.0576958 -0.1412524 0.1030142
-0.1286353 -0.1315475 -0.1831832 0.0726830
0.1500228 0.2590979 0.0581267 0.0643436
0.2675005 0.1361923 0.1443617 0.0415654
-0.0758785 -0.1541595 0.0025220 0.0504333
0.0745671 0.0173066 -0.1359631 0.0566694
-0.0065283 -0.0424532 0.0589876 -0.0514061
-0.1235899 0.1203679 0.0306486 -0.1196480
0.0593215 -0.1653381 -0.1488941 -0.1567107
-0.0920228 0.1434981 0.1484985 -0.0204166
0.2479749 0.0836347 -0.0300300 -0.2796064
0.2390227 -0.2935392 0.0112910 -0.2485158
-0.1348091 0.0282153 -0.0320164 -0.0356577
-0.0479769 0.0883840 0.1436294 0.0513975
0.0479210 0.0935336 0.0389128 -0.1097927
-0.1501665 0.0787612 -0.1022665 0.0228674
-0.2419756 0.1769235 0.1829592 0.2178779
-0.4709644 0.1458141 0.0449616 -0.1661303
0.1270741 0.2731349 -0.2050427 0.0721636
0.1562093 0.2319275 0.0135776 0.0556347
-0.0250452 0.1280103 0.0997641 -0.1768026
-0.2898417 -0.0679824 -0.0878341 0.1069346
-0.0251335 0.1826054 0.0721059 0.0790287
0.2340490 0.0889556 0.0063632 0.1175742
0.1624848 -0.1668847 -0.1797025 -0.0235732
0.0295476 0.3255529 0.1259739 0.0248295
0.2778558 -0.3443357 -0.0544146 0.0775547
-0.0089715 -0.1837913 0.0903274 -0.1627995
0.0424260 -0.0326781 0.0493111 0.0359202
0.1154081 0.1765824 0.0341412 0.0968710
0.1892535 -0.0762981 0.0592161 -0.0430980
0.0439411 0.0896751 0.2173504 -0.0175035
-0.4827489 -0.1681801 0.0327504 -0.0490418
-0.0747129 -0.1918025 0.0152322 0.2082654
-0.0743346 0.0837109 -0.2038361 0.1538265
-0.2339965 -0.1109816 -0.2498163 -0.0563872
0.0524052 -0.2257026 0.1811460 0.1519527
0.2011227 -0.0407635 0.1922167 0.1862662
-0.2395502 0.0778300 -0.2533952 0.1450143
0.2154067 -0.1213956 0.1527786 0.1592937
0.2145056 0.1293814 0.0173286 -0.1605610
0.1880657 0.2898170 0.1735200 0.0484030
0.1121085 0.0590687 0.0480362 -0.0777807
-0.0112693 0.0374799 -0.0295546 -0.0859771
0.0910521 0.2019332 0.0519323 0.0179063
-0.0345195 0.2897103 0.1462460 0.1445602
-0.0784788 0.0337278 0.0763314 -0.0484136
-0.0279613 -0.0533334 -0.0502862 0.0446699
-0.1878070 0.0712052 0.1447845 0.0200630
0.0767834 -0.1022825 0.0023864 0.0987959
-0.1556565 -0.2080235 0.0885966 0.0080728
0.0486366 0.0674521 0.0423467 0.0723497
0.0643425 0.1307295 0.0042515 0.0187908
-0.3399663 -0.0061501 0.2068175 0.0237126
0.2316245 -0.1662935 -0.0510199 0.0594086
0.0871276 0.1969084 0.0962822 0.1095330
0.0745616 0.1424658 -0.0927164 -0.0040204
-0.2354135 0.0312824 -0.0596517 -0.1194104
-0.2877087 -0.1361105 -0.0365563 -0.0171197
0.0635288 0.2240750 0.1427182 0.0523221
-0.0284180 0.0471542 -0.0471948 -0.0861763
0.1231750 0.0566801 0.0424959 -0.1003342
0.3119556 -0.2267378 -0.1981307 -0.0328955
-0.1562855 0.0299280 -0.0972029 -0.0243728
0.1433014 0.0177686 0.0703946 -0.1838619
-0.0243350 -0.2084021 -0.0176714 0.0206260
0.2304142 0.0304366 -0.1733843 -0.2448078
0.0092324 0.1507988 0.3278008 0.1535881
-0.2821108 0.0677420 -0.0331690 0.0047762
-0.3585907 -0.1404077 0.2496020 -0.0422940
0.1512398 0.0731415 -0.2630155 0.0215852
0.1382414 -0.0834986 0.1638723 0.0054839
-0.0831215 -0.0007640 0.0069502 0.0785006
0.0443528 -0.1025352 -0.2159871 -0.0734379
0.0123795 0.0769805 0.0778068 -0.1864202
0.0280061 -0.0411176 -0.0266710 -0.0115111
0.0916595 0.1496938 0.1001543 -0.0707636
-0.3253556 0.0850845 -0.0929831 0.0078476
0.0981482 -0.0416911 0.0284418 0.0864419
0.2158759 0.1200639 -0.3005604 0.2204074
0.1046853 0.1717461 -0.6285603 0.3123763
0.1186206 0.1161850 0.2352513 0.1863274
0.1567141 0.1754111 0.1232828 -0.2644184
-0.0269719 0.2740321 0.2263257 0.0448596
0.0576716 0.2304035 0.1189315 -0.1717129
-0.0439549 0.1611616 0.1269918 -0.0188318
-0.1509897 0.1612606 -0.0321673 -0.0227885
-0.1115306 0.1284337 0.1104914 -0.0906405
-0.3225710 -0.0271447 0.0323983 0.1078941
0.0169239 -0.2580920 -0.0010410 -0.0613918
0.1613245 0.0674369 0.0605476 -0.1450673
0.3364141 -0.2309676 0.0252526 -0.0762985
0.0932927 -0.0033932 0.1218195 -0.0813385
0.1877833 -0.1767402 0.0045262 0.0716851
0.1218761 -0.0168583 -0.1087030 0.1059444
0.0278755 0.0693526 -0.2410931 -0.0585913
0.0850136 -0.1111156 -0.1080809 -0.0250138
-0.0537116 0.0850723 -0.1004268 0.0689819
0.3105441 0.0401531 -0.1001206 -0.2298984
-0.0089934 -0.3026656 0.0282782 -0.0700767
-0.2904686 0.0427688 0.0127034 -0.2719269
-0.3319955 -0.0498167 -0.0718250 -0.0706010
-0.1259153 0.0501978 0.2824015 0.3156427
0.0489016 0.1056823 0.0515564 -0.2300866
-0.0202113 -0.1491670 0.1405976 -0.1154099
0.2647382 0.0163844 -0.2476135 0.1974672
-0.2453099 0.0269515 -0.0602274 0.0784364
0.0131539 -0.2008412 0.0917832 -0.0423896
-0.0012621 -0.1150501 0.1189050 0.0090422
-0.1009209 -0.1618477 -0.0718815 0.0457365
-0.0589059 -0.0032576 -0.0136796 0.1042901
0.1855122 -0.0956482 -0.1430477 0.1918766
-0.0957171 -0.2137517 0.0825024 0.0077241
0.0294989 0.1295984 -0.1661757 -0.0402697
-0.1229693 -0.0141860 0.2563859 -0.0117236
0.1105030 -0.2762458 0.0522778 -0.2540176
0.1186613 0.2056667 0.0002409 -0.0080008
0.0642396 0.0953885 -0.0617457 0.0300330
-0.1716860 0.0520894 0.1951706 0.0613997
0.0267023 0.0026894 0.0193916 -0.1714521
-0.0968238 0.2450768 0.2588745 0.0217339
0.2182847 -0.1867822 -0.0714847 -0.0103245
0.1168787 0.0204354 -0.2002307 -0.1842299
-0.0846322 -0.0125223 -0.0744872 -0.1705554
0.1244006 0.1515374 -0.1414490 -0.0451818
-0.0021916 0.1484319 0.0392531 -0.1475184
0.0163597 0.2399585 0.1100519 -0.0296537
-0.1036444 0.1115763 -0.1241869 -0.1405231
-0.0075176 -0.1567202 0.0183403 -0.0088024
-0.0291823 0.1371330 0.0692770 0.1211318
0.1751651 -0.2788051 0.0928630 -0.1483070
0.1530538 0.1217124 0.1725742 -0.3261082
0.1645319 0.1832184 -0.3281623 -0.0782632
0.0013294 -0.0665061 -0.0937949 0.0871150
-0.3598861 0.0214577 -0.3216913 0.1259132
0.1845705 -0.2771330 0.0712324 0.0851411
-0.1860410 0.0201123 -0.3098918 0.1417432
0.0641126 -0.1951227 0.2657339 -0.0711056
-0.0586825 0.3122936 -0.0105781 0.1588564
-0.2103526 -0.1247386 0.1305798 0.1939569
-0.0539746 -0.0144123 0.0093454 0.1758972
-0.1148720 -0.2067162 0.1811262 0.1484406
0.1569345 -0.0576282 0.1263234 -0.0144449
-0.5219191 0.0385647 0.0085697 -0.1700926
-0.1952880 0.0064805 0.0366211 0.1679927
0.1062229 -0.4370303 0.0875807 -0.1771282
-0.2946686 -0.0674233 -0.1624087 0.2181126
-0.0424081 -0.3749903 0.1405607 -0.1086780
0.1632509 -0.1201434 -0.1743598 0.0326978
-0.0216959 -0.0071215 0.1108708 0.0455877
-0.3541737 -0.0734960 -0.3950125 0.1437110
-0.1012063 0.0931954 -0.2489921 0.0623758
-0.5559928 0.0396746 -0.1687551 0.0385257
0.0413724 0.0829871 -0.4955308 0.1374723
0.2375996 0.2701554 0.0560909 0.0819509
-0.0145041 -0.1931259 0.1042299 -0.2459347
-0.1012629 -0.2263936 -0.0490954 0.0072979
0.0266141 0.0288713 0.2845360 0.1132932
-0.1584153 -0.2653772 -0.1662138 -0.0639264
0.0451218 0.0162960 0.0317991 0.0320491
0.1508070 0.0819797 0.0451190 -0.1153022
0.0712361 -0.0464069 0.0719079 -0.1486884
-0.3171314 -0.0771025 0.0842857 0.1104747
0.1211612 -0.0441698 -0.0235904 -0.2866594
-0.0071365 0.0162077 0.0638215 -0.0238328
-0.0030692 0.0202250 -0.0250331 -0.2200827
0.0362217 0.0950182 -0.0259819 0.1646761
-0.0446484 0.1262183 0.0696591 0.0949430
-0.0418354 0.0491817 0.1051606 0.0580119
-0.0571899 -0.0786374 0.1564678 0.0646657
-0.0777013 -0.1145254 -0.1841649 0.0390016
-0.0885089 -0.0411643 -0.0954845 -0.2589914
-0.1182768 0.0850616 -0.3228740 -0.1903924
-0.0078299 -0.3002848 0.0774116 0.1062972
0.2257235 -0.6075327 0.0354275 0.0088366
-0.0459613 0.1555915 0.0320783 -0.0855213
0.2456857 -0.0812337 -0.0223369 0.1560307
-0.1719695 0.0421496 0.0543483 0.0248356
0.0819293 0.1953995 0.0755714 -0.0844706
0.3593090 0.3627730 -0.0852900 0.1648562
0.0431528 0.0732793 -0.0321477 -0.0338838
-0.2797531 0.1003922 -0.2265286 -0.0977005
-0.0033458 0.1135232 -0.2727614 0.1416809
-0.2631670 -0.1267190 -0.0658931 0.1119594
0.0137718 0.0415745 -0.0126709 -0.2997180
-0.0454512 -0.0802205 0.0291099 -0.0227742
0.0311362 0.0831682 0.1101739 0.2315769
0.1006672 -0.0687062 0.0414105 -0.1606827
0.1681857 0.0559189 0.2021665 -0.0643987
0.2572551 0.1994918 0.0719765 0.2298841
0.1452252 0.0156007 0.0938610 -0.1899719
-0.1048673 -0.1556818 0.1465870 0.0401172
0.1570848 0.1222333 -0.2407058 0.1465243
0.0851643 0.1175708 -0.1140652 0.0787212
-0.2860186 0.0250698 -0.1442548 0.1286705
-0.0434748 -0.1181788 0.1477330 0.2437675
-0.1066475 0.1508321 0.0111814 -0.3113329
0.1682094 0.1631793 -0.0991468 -0.0043050
0.1620190 0.2842609 0.0457236 0.0463122
-0.1079569 0.1945007 -0.1538591 -0.0421968
0.1373737 0.0061825 0.1657053 0.1287911
0.0879648 0.2852614 0.2220641 0.0124577
-0.2919987 -0.1106428 0.2123677 -0.2065744
0.0713122 0.0788565 -0.1097699 0.0095416
0.1838679 -0.0424067 0.0465753 -0.0074539
0.1082081 0.2926747 -0.1191041 0.2133428
-0.3090615 -0.3223861 0.0364376 0.0164414
0.1032177 0.1534807 -0.0661829 -0.0091119
0.1687098 -0.0382341 0.0676157 0.0607108
0.1219854 -0.0904046 -0.0973200 0.0120984
0.0591628 0.0433331 0.0001518 -0.0577876
-0.1970883 0.2249113 0.0073792 -0.2263880
0.0065546 0.0682763 0.0067258 -0.0273879
-0.1653808 -0.0383122 -0.2499873 -0.0693295
-0.0202534 -0.0715778 0.5324519 0.2441709
0.1687012 -0.0323559 0.0074424 -0.0461372
0.1327291 -0.0204347 -0.0905400 -0.0690144
-0.1146466 -0.0869584 -0.2263259 -0.2429589
-0.2591998 0.0743180 0.0377464 -0.0823648
0.0383412 0.1349965 0.0852524 0.0055269
-0.2874563 -0.2123036 0.0259968 0.1341094
0.1478692 -0.1874555 0.0427528 -0.2324052
-0.4135743 0.1842064 0.1670741 0.2096365
0.0207404 0.1692271 0.1921311 0.1786007
0.0462047 0.1444499 -0.1283461 0.0785381
0.0397162 0.0947563 -0.0452772 0.0042266
0.2171367 -0.5411714 0.1459240 0.0290107
0.0436841 0.0751894 -0.0178284 -0.4018438
0.2154999 0.0408573 -0.0254160 -0.1890450
0.0537370 -0.3053134 -0.2170081 0.0279568
-0.0113495 -0.2188376 -0.0872796 0.1079416
0.0379620 -0.1980973 0.3033341 0.3112741
-0.3506988 0.2770489 0.1831262 -0.2826517
-0.7283213 -0.0555002 -0.0043018 -0.1174926
0.1187460 0.3140287 0.3087683 0.2570493
0.1094149 0.2248473 0.1709477 0.2400965
-0.0324081 -0.1144509 -0.0227502 -0.0945204
0.0948141 -0.0251205 -0.0582337 0.0904878
-0.0753813 0.0578642 -0.0939738 0.2026087
0.0979197 0.1500217 0.2538433 0.0343053
-0.0431462 0.0443819 -0.1325551 -0.1537664
0.0439053 0.0711671 -0.1120883 -0.1335418
0.2893213 0.0231486 0.3389516 -0.0436598
-0.5307720 0.0021596 -0.3980839 0.0801494
0.1590632 -0.2285008 0.1964823 0.0797124
0.1219144 0.0739313 0.0318607 -0.0717081
-0.4591493 -0.0371281 -0.0638904 -0.1048701
0.2074091 0.0604623 0.1206404 -0.1038431
0.2371530 0.0564299 0.1302065 0.0951550
-0.0089465 -0.0084276 0.3070752 0.1690259
-0.2661164 -0.1084112 0.0535882 0.0369180
-0.0893281 0.1904681 -0.1928786 -0.1956271
0.1719523 0.1165471 0.0753986 0.1184271
0.1177415 0.1279372 -0.2320987 0.1532933
-0.4004550 -0.0658613 -0.2787111 0.0310239
0.0509906 0.0016697 -0.0609274 -0.1001640
0.2270680 0.0921852 -0.0397605 0.1198474
-0.2956279 0.0079933 -0.0036907 -0.2209046
-0.1146081 -0.0445139 -0.0256755 0.0887839
-0.0791576 0.2540279 0.0535057 0.0665392
-0.0085872 -0.0864304 -0.0705062 -0.2060140
-0.1181472 -0.0615907 0.1343752 0.0182684
0.2705687 -0.1629563 0.2211676 -0.0601083
0.1128221 0.1231784 0.0059059 0.0058015
0.1351192 -0.0450378 0.1529156 0.0427932
0.2354026 0.0796952 -0.1133163 0.1306653
-0.0621639 -0.1267895 0.0545052 0.1049151
-0.1514978 -0.2884629 0.0478795 -0.1198309
0.2826801 0.0026134 0.0112862 -0.0006808
-0.1771443 0.0155083 -0.1342221 -0.0308913
-0.0623861 0.0070150 0.0190431 0.0749557
0.1516781 0.1371065 -0.2427135 -0.0732059
-0.1560880 0.0357891 0.0783416 -0.1313674
0.1160431 0.1186467 0.0436212 0.0171974
0.1689869 0.0152969 -0.2805261 0.0241396
-0.0635481 -0.0690896 -0.0767082 0.0820874
0.1574071 -0.2292073 0.1280321 -0.0860431
-0.0306756 -0.2126425 -0.1673897 0.0536157
-0.1920814 0.3629816 0.0407767 0.0393539
0.0808372 0.0757027 -0.1607934 0.1158725
0.1400166 -0.2362932 0.1448297 0.1000563
-0.3104957 0.0230140 -0.1442277 0.1880503
-0.2008179 -0.0561980 -0.1420192 0.0855014
0.0270425 0.1764159 -0.0832359 0.0297510
0.1748005 -0.1950044 0.0658599 -0.1451427
0.1833290 0.0868130 0.0077791 0.0718077
-0.0952653 -0.3300484 -0.1229161 0.1394135
0.1379902 0.2318267 -0.1038397 0.2152789
0.0499452 -0.0785512 0.1782359 -0.1630045
-0.0325668 -0.2938102 -0.4038699 0.0811866
0.1989053 -0.1391034 0.1959580 -0.0154315
0.0663516 0.1702335 0.2260914 -0.0972097
0.1953192 -0.1423927 0.0695923 0.0025338
0.1668826 -0.0480386 0.0917393 -0.0015233
-0.4784146 -0.1100042 -0.1275603 -0.0177362
-0.0634956 0.1641370 0.1315922 0.0416478
0.1219463 0.0865534 -0.1419068 -0.0694769
-0.1288601 -0.2881648 0.1060847 0.0683150
0.2083756 0.1965085 0.1047890 -0.0634657
-0.0517981 -0.1162847 0.1366072 0.2866621
0.0174830 -0.1557578 0.0622463 -0.1019503
-0.1737669 -0.0911180 0.0184639 0.0239725
0.0256161 -0.2395403 -0.3079255 -0.3647754
0.0921435 0.1147833 0.0360898 0.0382036
-0.3515467 -0.1713794 0.1112303 0.0491015
-0.0246232 -0.2262958 -0.0938796 -0.2237343
0.0629091 -0.0959309 0.1682130 0.1754739
0.0556002 0.3403525 0.2541296 0.2039861
0.1137241 0.1718988 -0.0022645 0.0722647
-0.0613413 0.1187419 0.0856204 0.2167923
-0.0741427 -0.0897475 -0.3688751 -0.0367378
-0.0639986 -0.2466409 -0.0018885 0.1886213
0.1573455 0.3330437 0.3460257 0.1451649
-0.1770404 -0.0139002 -0.0363675 0.0094415
0.1089889 0.0681101 0.1167331 0.1049699
0.2676291 -0.3579769 -0.0617509 0.1704363
0.0870513 -0.3727772 -0.0707292 -0.0177790
-0.1692349 -0.0961059 -0.1579998 -0.1212438
0.1211537 -0.0353792 -0.0572219 -0.0885621
0.1479957 -0.0264876 -0.0605608 -0.0403695
-0.0034224 0.0428847 -0.2469690 0.0602766
-0.1947083 -0.1815943 -0.3016140 -0.0409192
0.0342102 0.1032786 -0.0083206 0.0511747
0.0357512 0.0582509 -0.0052940 -0.2139112
0.2331981 0.0087112 -0.0681892 -0.0921547
0.1136575 0.1293893 0.0949247 0.1337592
0.0677669 0.1232590 0.0566092 0.0944102
0.0708832 -0.1461181 0.0683941 -0.0229963
-0.1553368 -0.0596466 -0.0082944 -0.0556593
0.1124466 0.0762971 0.0714342 0.0177211
-0.1064369 -0.0702032 -0.3744767 -0.0352392
-0.1566720 -0.0739022 0.0712476 -0.0229105
0.0671530 -0.0810208 -0.0195951 0.0316734
-0.2489830 0.1952057 0.1288091 -0.0329330
-0.0875898 -0.0002690 0.0379072 -0.0464794
-0.0352591 0.1481346 0.0463179 -0.0418689
-0.0154670 -0.2520839 -0.0550950 0.0017246
-0.3191402 0.0082704 -0.2455722 -0.1950140
0.0423207 0.1062381 0.0008492 -0.0521089
0.0886882 0.1516976 0.0736270 0.0026362
0.2308864 -0.2442458 0.1379323 0.0433629
0.0878677 0.0042245 -0.0070880 0.0396267
0.2108153 -0.3352377 0.2288626 0.2602432
-0.2058394 -0.5201843 0.0687434 0.0658381
0.0454784 -0.2406503 -0.0965886 -0.3169756
-0.4657548 0.0481825 0.0659593 0.2108436
-0.1960429 -0.0187732 -0.1527587 0.0170351
0.0043501 0.1399922 -0.0215230 0.2201469
0.2722729 0.0689833 -0.1007972 -0.1696692
0.3705521 0.0321294 -0.1268546 -0.2965083
-0.1934608 0.0151193 -0.0047297 -0.0534893
0.0181671 0.2960241 0.2334570 0.0684750
-0.6725652 -0.1712155 0.0760051 -0.0452823
0.2448923 0.2026194 0.1997066 0.1765895
-0.6372697 -0.0086734 -0.3899396 0.1116334
0.0544632 -0.0385566 0.0188988 -0.1950229
0.0590944 0.2158419 0.0211543 0.2015757
-0.2279127 0.0389844 0.0926451 0.0263904
-0.5079077 0.2129000 -0.2617145 0.1458340
0.3527750 -0.1194493 -0.2374027 0.0887115
-0.0081121 -0.0363959 0.0345386 0.0250636
-0.0885032 -0.2657309 0.0702130 -0.1301391
-0.5301873 0.2407061 -0.0242522 0.0437274
-0.6760430 -0.2462868 -0.1907227 -0.0930534
0.1971394 0.2636295 -0.2111444 0.0989644
0.1236010 0.0117603 0.1313150 0.1053137
0.0757619 -0.2776071 0.0006261 0.0014805
-0.0824497 -0.0787286 -0.1099223 -0.0032787
0.0206360 0.2619010 0.2365731 0.0719521
0.1324036 0.1711000 0.0188626 -0.0827656
0.2404731 -0.0899266 -0.2347156 -0.0982281
0.0083415 0.1985404 -0.1653773 -0.0615083
0.0714705 0.1327226 0.0477381 0.0542562
0.1449380 0.1084841 0.1467195 0.1017350
0.1766546 0.0450746 -0.0771785 -0.0043461
-0.3291935 -0.0891851 0.0211152 -0.1378125
0.1170655 0.0451933 -0.0713885 0.1781517
0.0540808 0.1317457 -0.0944748 0.0742281
0.0652393 0.0589784 0.2460854 0.1293752
0.0765572 0.2163472 0.0998859 -0.0194805
0.0391306 0.0650368 -0.0528396 0.0761266
0.1125506 0.0945777 0.1414502 0.0386989
0.0149550 -0.0379442 -0.1032752 -0.0832378
-0.0581364 -0.0706242 -0.0724569 -0.0052531
-0.0174026 -0.2011277 -0.0770165 0.1430737
-0.0611294 0.0121513 -0.1952300 0.0524349
-0.3578741 -0.0176891 -0.0766537 0.0111859
0.1539937 0.0317461 -0.1078563 0.0464023
0.0117899 -0.0355733 -0.0812886 0.0916520
0.0410398 0.0393184 0.1910099 0.0855646
0.0175548 -0.0290087 0.0197639 0.1687486
0.4263721 -0.2005069 -0.1209076 -0.1320853
0.0708708 -0.2744427 0.1207176 0.0754010
0.1259480 -0.0693310 -0.1125582 -0.1016753
0.1742547 -0.0531670 0.2864696 0.0973287
-0.2786682 0.1732039 -0.2363147 -0.1693490
-0.2523977 -0.0741933 0.0869975 0.1607437
-0.3666136 -0.2254303 -0.0442311 -0.1613987
-0.0320017 -0.1129768 0.0374435 -0.0398611
0.1170734 0.0709303 -0.1514285 0.0319452
-0.2626300 -0.0624355 0.0501562 0.1201636
-0.3245605 -0.0841795 0.0713660 -0.0491519
-0.2227895 0.0807116 0.0443023 -0.0272571
0.1595402 -0.1084890 0.0007110 0.0818532
0.1614387 -0.3172924 0.0192521 -0.1188361
0.2625387 0.1990799 -0.0897917 0.0399385
0.1536469 -0.0306680 -0.1492801 0.0164892
-0.1706149 -0.0407342 -0.0495029 0.2606300
0.0550581 0.1690416 -0.0027371 0.0580527
-0.1347736 0.0792506 0.1195817 -0.0125850
0.1760202 -0.3826756 0.0449552 0.0080809
0.0215736 -0.0381650 0.1111848 -0.0862762
0.1753478 0.0137596 -0.1514675 0.2177414
-0.0016267 0.0349615 -0.0592597 -0.0165026
-0.2596063 -0.1841734 0.0237432 -0.1810315
-0.3801838 0.0586840 -0.3056715 0.1646431
0.0900473 0.1084407 -0.3815733 0.1823586
0.2444586 0.1902544 -0.0866818 -0.1321742
0.2218632 -0.0064690 -0.0296977 -0.1674218
0.0871449 0.1136120 0.0781962 -0.1568753
-0.3771450 -0.0232934 0.0800344 -0.2647335
0.0672152 0.1910978 -0.0401900 0.1935679
-0.0566956 0.1174032 0.2372620 -0.0361854
0.1115815 0.0447309 -0.0270352 0.3356203
-0.0059359 0.2155658 0.0820343 0.0493059
-0.1176710 -0.2050343 -0.2227822 -0.0131736
0.0625309 0.0217406 0.1488329 0.0382462
-0.0494103 0.0290115 -0.2193863 0.0291356
0.0308282 -0.0830133 0.0543309 -0.1511337
0.1558931 -0.0501317 0.1064482 -0.0006278
0.2354651 0.1660055 -0.1685879 -0.1894669
-0.0539106 0.2284722 0.0012071 -0.3557644
0.0733409 0.1319552 -0.1337387 0.1505052
0.2132934 0.0557139 0.1592126 -0.0529070
-0.2638634 -0.0189345 -0.3271137 -0.0880544
-0.0018380 0.1073478 0.2155264 -0.0011227
0.2245288 0.1272787 0.0623572 0.1991675
0.1265711 -0.2389609 0.0664291 -0.0805207
-0.3664751 -0.1259156 -0.1008201 -0.2616634
-0.0097407 -0.2639497 0.1768484 -0.0643499
0.1171377 0.1243697 0.0368572 0.0858462
0.0416399 0.2817417 0.2193377 0.0745279
0.2258085 0.2135916 -0.0160694 0.2381470
-0.0739251 -0.0366795 -0.2393301 0.1250449
0.2884271 -0.2785614 -0.2004604 -0.0162872
-0.0090971 -0.2305713 -0.1332887 -0.2532087
-0.3710333 0.0067971 0.0583282 -0.0209380
0.1351914 0.0574431 -0.1974689 0.0785890
0.3675287 0.2830008 0.3573856 -0.0757111
0.0941652 -0.0254338 -0.3104979 -0.0021891
0.1345575 -0.0155652 0.1930807 -0.1312804
0.0764226 -0.1757995 0.1649632 -0.0029057
0.0862868 -0.0052554 0.1030080 -0.0947064
-0.3745390 -0.1359386 -0.1351795 -0.0219461
-0.0667072 0.1223396 0.1060285 0.2476018
-0.3006969 0.1366023 0.1280929 -0.0041938
-0.1802665 0.1351158 0.0793114 -0.2199131
-0.0568813 -0.1539236 -0.1372625 0.0288940
-0.4391347 0.0505465 -0.3029818 0.0462330
-0.2946820 0.1242232 -0.1394370 -0.0303181
0.1254439 -0.3909999 0.1357041 0.1279414
-0.0874323 -0.1405391 0.0584591 -0.0385364
-0.3374753 0.0681655 -0.0155710 -0.1162083
0.1951213 -0.2019036 0.0788289 0.1124816
-0.1495503 -0.3917934 0.0935276 0.0781301
0.0418591 -0.1037935 0.2324638 0.1085727
0.1388069 -0.0781451 0.0741597 0.1385282
-0.0646726 0.0644512 0.1142009 -0.1503939
0.0275019 0.2621244 0.2207523 -0.0461668
-0.3850055 -0.6110811 -0.0265052 0.2177635
-0.3474239 -0.1874191 -0.1881819 0.1324484
0.1302157 -0.3096004 0.3240111 0.3548956
0.3359351 -0.1499992 0.1985070 0.0258494
-0.0874978 0.1084259 0.0638105 -0.0581993
-0.0353697 0.0662226 0.0174519 -0.2201367
0.0965960 0.1676003 -0.2113232 0.0495848
-0.4149738 -0.0409013 0.1695430 0.1661517
-0.3147725 0.0980947 0.0497829 -0.0960405
-0.0487710 -0.0975980 0.1928874 -0.0441224
-0.1231546 -0.0632750 0.1692446 -0.0376534
-0.0187148 0.1070531 0.1304951 0.3386549
-0.0670799 0.0470353 0.0156363 -0.0133448
0.1335788 0.1174523 -0.0847561 -0.0574296
0.2008808 -0.0909077 -0.1850798 -0.0251100
0.1442069 0.1663759 -0.0907509 -0.1855475
0.0019496 0.1317190 -0.3586481 0.1806115
0.1818015 0.1201610 0.0296873 -0.2184221
0.2077660 0.0378402 -0.2962874 0.1547969
0.2855631 0.1747014 -0.2293734 -0.0173307
0.0456241 0.1605285 0.0280193 -0.0470258
0.1507195 0.1873360 -0.3873444 0.0554702
-0.4297330 -0.0314432 -0.1537657 -0.0425301
0.1392880 0.3071401 0.2246309 0.0880118
-0.0062550 0.1556712 0.1467368 -0.1598271
-0.3301507 -0.1680915 0.0953586 0.2400660
-0.1433511 0.1250816 -0.0693273 0.0073300
-0.3917181 -0.0275286 -0.0007634 -0.1673750
0.1550272 -0.0308686 -0.0288807 -0.0266170
-0.4232692 -0.1690989 0.1653107 0.0505533
0.0189039 -0.1632674 -0.1372493 -0.0872543
-0.0481450 0.0594477 0.0865723 0.0959856
0.0863115 0.1447778 -0.3798854 0.1904697
0.0990610 0.2091688 -0.2773344 0.0796079
-0.5109311 -0.1299657 0.0772911 0.0022155
0.1160506 0.0764456 -0.1233627 -0.2667079
0.0254641 -0.4823642 0.0986610 -0.0969253
-0.1936642 -0.2358417 -0.2521776 -0.0520562
0.1968515 -0.3619007 0.2273508 0.1482544
-0.1398605 -0.1596814 0.0714994 0.1189004
0.0462791 0.0690793 0.0413132 -0.1635560
-0.3052758 -0.0955746 0.3363647 0.2282178
0.0890155 -0.2360864 0.0692530 -0.0547545
0.1453484 0.2659243 0.0100614 -0.0040889
0.0553309 0.1335274 -0.4170455 0.2184969
-0.1632052 0.2134386 0.2099490 -0.0448542
-0.0396119 -0.1567508 -0.0267889 0.0313044
-0.0109351 0.1964848 0.1403889 -0.0969443
-0.0491783 -0.0237907 0.0079570 0.0656252
-0.0321213 0.0349075 0.0222065 -0.2930625
0.0552846 -0.0635728 -0.1323751 0.0364645
-0.0893277 -0.1519863 -0.0475687 0.0529338
-0.0822716 0.0256727 -0.0735295 -0.1073281
0.0979932 0.0355791 -0.0288452 0.2110667
-0.1240159 -0.2638573 -0.1180968 -0.0606856
-0.3161484 -0.0427112 0.0133962 -0.2928830
-0.0987475 0.0098526 0.0219078 -0.1337579
-0.0753851 0.0257067 -0.0177244 -0.0096769
-0.4295591 0.0764770 0.0673827 -0.0636408
-0.0187520 0.1566524 0.1183879 0.0687805
0.1818062 -0.2005298 0.1993278 0.2398346
-0.1148304 -0.0915604 0.0558209 -0.2358616
-0.0926336 0.0438747 -0.2459397 0.0585125
0.1319289 -0.0558349 0.0325994 -0.0122589
0.1888120 -0.2907006 -0.0198125 0.0073844
-0.0184810 0.1252050 0.2662703 0.1633300
-0.2811667 -0.0803368 0.0330711 0.0227026
-0.2223125 0.2087483 -0.2165094 -0.2062652
0.1999641 -0.1068566 0.1565081 0.0644100
-0.3350436 0.0328483 0.1055749 0.0902298
-0.1090490 -0.0013532 -0.2163148 -0.3643585
-0.1140888 -0.0354051 -0.3228006 0.1095140
-0.0010536 0.0783736 -0.0470440 -0.0659093
-0.1381183 -0.0433757 -0.0969463 -0.1710745
-0.2610532 0.0934354 0.0997207 0.0408091
0.4865875 -0.3178348 0.1636446 -0.0363292
0.1768110 -0.1065060 0.0843325 0.1125069
0.0986289 0.1510249 -0.0351547 -0.2102670
-0.0815907 0.1370162 -0.0769349 -0.2605684
0.1372581 0.1941748 0.0176704 0.0009679
-0.6685092 -0.0876021 -0.0960615 -0.0958253
0.0358835 -0.1400825 -0.0404422 -0.0851536
0.1910779 -0.3945808 0.2396787 0.0736603
0.1214780 0.0275364 -0.3397635 -0.0126097
-0.0614522 -0.0585994 -0.0738159 -0.0638036
0.1586481 -0.1346427 0.1273437 0.1020840
0.1765935 -0.0034416 0.0028664 -0.2440307
-0.0138302 -0.0514755 0.1088533 0.1639397
-0.2538609 -0.1038795 0.2045171 0.1265031
0.1195114 0.2278583 -0.2346253 0.2027345
-0.2663933 -0.0327920 0.0691268 0.0669303
0.1347416 -0.1312929 -0.1529374 0.0804223
-0.2311850 -0.0798112 0.3027450 0.0561266
-0.5171948 -0.0312335 0.0509375 0.2219517
0.1647615 0.0540438 0.1251852 -0.1837072
-0.3714624 -0.0261762 0.0936162 0.0931525
-0.2108414 -0.1073310 -0.0552753 -0.0261234
-0.1081361 -0.2034910 -0.0905117 0.0336410
-0.2627557 -0.0530887 -0.0516766 -0.1077453
0.1590966 0.1466135 0.1041359 0.2160235
-0.1204058 -0.0317208 0.0083466 0.0870173
0.1023965 0.1307038 0.1001692 -0.0446282
0.3011829 0.0113099 0.0674845 0.1583002
-0.0111832 0.0554474 0.1790576 0.0821043
0.1044477 0.0876871 -0.1656408 0.0383855
0.0764796 -0.0019211 0.0404117 -0.0007156
0.0693131 0.0606118 0.1279197 -0.0980791
-0.0729185 0.2546379 0.0549902 0.2259304
-0.0389000 0.1401890 0.0452018 -0.0903648
-0.0112429 0.0066106 0.1580151 0.0834646
-0.0787220 -0.0153876 -0.1362064 0.1612529
-0.0828531 -0.0166685 -0.1433068 0.0819698
-0.1566950 -0.0118415 -0.0628223 -0.1358863
0.1585105 0.0286326 0.0177622 0.0815555
0.1383700 -0.0460137 -0.3522969 0.2284379
-0.3526348 0.0286216 0.0644141 -0.2406938
0.1970781 0.1020197 0.0749519 -0.2650667
-0.5943819 -0.0653866 -0.1835828 0.1053580
-0.2186349 0.2586413 -0.2759456 -0.0076310
-0.3482251 0.1212945 -0.0921071 -0.0969853
-0.3966674 -0.1629798 -0.1993383 0.0621349
0.2756724 0.2527540 -0.0121383 -0.0585533
-0.4855655 -0.4061613 0.0104290 -0.2062648
-0.3164919 -0.0861293 0.0646463 0.1018784
-0.2360943 0.2243854 0.0284370 -0.0680268
0.1156498 -0.0017377 0.1854530 0.1424074
-0.1384543 -0.0978727 -0.0489941 0.2442573
0.0846373 0.1079750 -0.1224546 -0.0756336
0.1493512 0.1501148 -0.2799205 0.0476159
-0.0509740 0.1803938 0.2430413 0.0762044
0.0337029 0.0271794 -0.0857783 -0.2537631
0.0153401 -0.0007640 -0.2025263 -0.0277497
-0.2910572 0.1205464 0.0751700 0.0385041
0.1830170 0.1637452 0.0305599 0.0688283
0.1307995 0.1016915 0.0011562 -0.0447464
-0.1067287 -0.1070222 -0.2291579 -0.0028057
0.1614128 0.0374151 0.0586892 -0.1221171
-0.2185041 -0.3644606 0.0472775 -0.0093959
0.3089947 0.1459875 -0.0203888 -0.1346672
0.0026856 -0.1345319 -0.1570365 -0.2605470
-0.0109258 0.0669055 -0.0916990 -0.1739293
0.0336108 0.1920228 -0.1192336 0.0817407
-0.0095775 -0.1221359 -0.0850920 0.0330431
-0.1108838 -0.0157770 -0.0455865 -0.4104933
0.1068570 -0.1263469 -0.0376399 -0.2149665
-0.0749795 0.0648903 0.2206840 -0.0496916
0.2485825 0.1792084 -0.4655229 0.1096422
-0.1924660 -0.0387069 0.0370833 -0.1005718
0.1820737 -0.4717406 -0.0226605 0.0882124
0.2759597 0.2465349 -0.0277509 -0.1246406
-0.1108785 -0.1824368 0.1915816 -0.0000378
-0.1323105 0.0524429 -0.0824142 -0.0438341
0.0537679 -0.0395747 0.1922086 0.0794365
0.0664593 -0.1943871 0.2588218 0.1369374
0.1024419 -0.0291632 -0.0694266 -0.2188513
-0.1587859 -0.0977104 -0.0485315 -0.0159490
0.1568627 0.0717888 -0.2822555 -0.3443573
-0.0188494 0.3359555 0.3314289 0.2646678
0.1170437 0.0348729 -0.0170365 0.0597189
-0.1084890 -0.3189969 0.0210522 0.0770387
0.2008351 -0.1587134 -0.1020075 0.1228892
-0.4161521 -0.0767736 0.3828629 -0.0336226
0.1132036 -0.0526853 -0.0274326 -0.0314775
-0.4650012 0.0876129 0.1045245 -0.0350483
-0.3695792 -0.1984226 -0.1341506 -0.0354674
0.0082289 -0.2161995 0.0036545 0.0114313
0.1526402 0.1307379 0.0194414 0.1764276
-0.0464322 0.0644152 -0.1615409 -0.0704216
0.0677897 -0.2497246 0.1579643 0.0902466
0.1482289 -0.2532986 -0.0007088 0.0540755
0.2298012 -0.0036814 0.0501481 -0.0744008
0.2472961 0.0013822 0.1512712 -0.0373927
0.0997170 0.0215133 0.0779283 0.0825583
-0.0205454 -0.2675086 -0.2410198 0.2993813
0.1730313 0.0584447 0.2464831 -0.0301498
-0.0262580 0.0658149 0.0376347 0.0571519
-0.1062931 -0.1291312 0.1886357 -0.1107995
0.1951912 -0.1535435 0.1231108 -0.0480261
0.0732027 -0.0437946 0.1277659 0.0820615
0.0770696 0.2119022 0.1897948 0.0859567
-0.1673735 0.0792538 0.1615909 -0.0278501
0.0876537 -0.0134811 -0.1010147 0.0132910
0.0773267 0.2291263 -0.1952958 0.1229986
0.0653317 0.0516674 -0.0430408 0.2458050
0.3215628 0.2022513 0.0868945 0.0894823
0.1979093 0.0217121 0.1704339 -0.0936773
0.0522085 0.1112369 -0.3309084 0.1970424
0.0725541 0.1626034 0.1273587 -0.0134374
0.0367659 -0.2653077 -0.0754350 -0.0735648
0.2345168 -0.1043579 0.1008309 -0.2656207
0.1255660 -0.1255852 0.0546242 -0.2735097
0.1660951 0.2508921 -0.1920660 0.0784275
0.2412042 0.0914167 -0.1823745 0.0037597
-0.0493905 -0.0436026 0.0716911 0.1197106
0.0821530 -0.0875659 -0.0338321 0.1088624
-0.0230193 -0.1095233 0.0490012 -0.0134247
-0.0196982 -0.4471697 -0.0595779 0.0664012
0.1286940 0.1890462 0.0825599 -0.0486072
-0.2518188 -0.0072918 -0.1473772 -0.2839210
-0.3068541 -0.2431790 0.0148736 -0.3731350
-0.0299886 0.0559510 0.1143219 -0.0661908
0.1752014 0.0610299 -0.1132291 -0.0482351
-0.3285001 0.0223210 -0.1080039 -0.3551799
0.0331905 -0.0158667 -0.0258043 0.0090138
-0.3189827 -0.1759111 -0.0531141 -0.0501319
-0.1753474 0.0233264 0.0320009 -0.2812071
0.0422142 -0.0661253 -0.0094989 0.0030992
0.0804283 0.0676084 -0.0470980 -0.2315482
0.1249534 0.0486613 0.0707287 -0.1776961
0.0820619 0.0932193 0.0514389 -0.2317164
0.2029134 0.1376805 -0.1818975 -0.1614192
0.0005537 0.1013120 0.0514217 -0.1358214
-0.1829400 0.0066078 0.0159278 -0.1627733
-0.8389824 -0.0855405 -0.1856955 0.1582538
-0.7415908 -0.1491596 -0.1033249 -0.0179261
-0.0273534 0.0598007 -0.0187319 -0.1238376
0.2400048 0.0680847 -0.4010441 0.2304305
-0.0451687 -0.0936352 0.1589970 0.0981698
0.1350552 0.1750028 -0.0844682 -0.0724672
0.1356381 0.0170688 -0.2895601 -0.2058205
0.1830954 -0.0977872 0.0228831 -0.2259808
-0.1267935 -0.1101291 0.1651471 0.1753533
0.0837056 0.2744781 0.1859231 0.0608920
-0.0540345 0.0292445 -0.1589132 -0.0547949
-0.1869046 0.1184705 0.1331934 -0.0931475
0.1405501 0.0193112 0.0625876 0.0129992
-0.1840978 0.0037058 -0.3165630 0.1762597
0.1727007 0.0736447 -0.2162030 0.0937441
0.0023398 0.0537926 0.0089237 -0.0787041
-0.4292364 0.1525138 -0.1141358 -0.2913906
0.2217686 0.0809492 0.2044241 -0.1028571
-0.4526988 0.0398161 -0.0327948 0.1755752
-0.4184881 -0.0558336 0.0103509 -0.2501169
0.2211696 -0.0138144 0.0792417 -0.1519350
0.0836300 0.2147490 -0.2175011 -0.1980443
0.1812978 0.0782899 0.0159553 0.0571193
0.0770448 -0.0935434 0.0214535 0.0790721
0.1923660 0.1787826 0.0285036 0.0757830
-0.1631608 -0.0969527 -0.0134115 -0.0860801
0.0512954 -0.2185216 -0.0098105 -0.0943033
-0.3016362 -0.1148984 0.0045877 -0.0642029
0.1372595 -0.0043599 0.1108746 -0.1710283
0.0279375 -0.1284093 -0.2432814 -0.2369277
-0.0299587 -0.0444925 -0.0416651 -0.1144921
-0.0937925 -0.1209575 -0.0142437 0.1048119
0.0906365 -0.0562350 0.0640540 0.0803016
0.0194097 -0.0026507 -0.1492027 0.0577108
-0.6608075 -0.2487364 -0.1422075 -0.0952783
-0.2907182 -0.1690008 -0.0144328 -0.0146536
0.0287634 0.0323169 -0.1348546 0.1563468
0.1582703 0.1354882 -0.1055282 -0.0125276
-0.0280524 0.2291205 0.0297589 0.2402129
-0.2646613 -0.0018039 0.1240322 0.0828971
0.2013467 -0.0441727 -0.0355285 -0.0164194
-0.0437993 -0.1783428 -0.0059080 -0.1134013
-0.0615166 -0.3018912 -0.0864730 -0.1134373
0.1306518 0.1693081 -0.4784136 0.1661149
0.2273230 0.1779204 -0.0001961 -0.0751358
-0.0686321 -0.3087561 0.1084977 0.0312854
-0.6433391 0.2575718 -0.1172742 0.0800373
-0.1417781 0.2694119 0.1180678 0.0558100
-0.1035685 -0.2210712 0.1677187 -0.1513711
-0.1067238 0.2128267 -0.0615212 -0.0454911
-0.3593668 0.2278484 -0.1355941 0.1413333
0.0481283 0.0208726 -0.0618635 -0.0149792
-0.1004729 0.1228796 -0.0004086 -0.0633373
0.1315067 0.0907970 -0.0547212 0.0009581
-0.5228633 -0.0183585 -0.0882866 0.0170415
0.1257170 0.0942026 0.0566579 -0.0756358
0.1232833 -0.0944806 0.0029268 -0.0822631
-0.0205776 -0.2407254 0.1788327 0.1044039
-0.0963765 -0.0874812 -0.0697496 0.0254229
-0.0437630 -0.0353234 -0.0400695 0.1498314
-0.4608037 -0.3657372 -0.0374249 0.1058178
-0.4397614 -0.2893862 -0.0047958 -0.1694717
-0.0392089 0.2390359 0.1152119 0.0859249
0.0499069 0.1443220 0.1913726 0.0523707
0.0784666 0.0881078 0.0952585 0.0270726
-0.2094887 0.0373832 0.0333130 -0.0215432
0.1644834 -0.0007280 -0.2590752 0.0777871
-0.2355654 0.1481730 -0.1859426 0.1612760
0.4205713 -0.1521185 0.2052786 -0.3797418
0.2027467 -0.0635552 -0.3783122 0.0295765
0.0196845 -0.1105502 0.0458607 -0.2310381
0.1808852 0.0000184 -0.0479009 -0.3069340
-0.1917319 0.1768827 0.0987809 0.0375810
-0.2764929 0.0339158 -0.2032427 -0.0878503
-0.0219324 0.0683566 -0.1784555 0.3079582
0.2005935 -0.3714216 -0.0057235 -0.0682859
-0.1102332 -0.5444770 0.0583758 0.0300528
0.2562097 0.0134889 -0.0212903 -0.0928135
0.0669959 0.0565727 -0.0221091 -0.1571404
0.2757500 0.4288223 -0.1524428 -0.0427386
0.2325661 -0.1775532 0.0805406 0.0265572
-0.1523943 0.0149217 -0.0270508 0.0435795
0.0510441 0.0187238 -0.3170037 -0.2618271
0.3123362 -0.0580447 -0.1061396 0.2806927
0.1923562 -0.2484508 0.0131200 0.0160308
-0.0817546 0.3149139 0.2048636 0.2390095
0.0844863 0.1146971 0.0715442 0.1636660
-0.1044433 -0.1128448 -0.0102823 -0.3016223
-0.3851658 0.1475945 -0.0690975 0.0601367
-0.2428448 -0.2296760 0.1331100 -0.1799198
0.1222245 0.0029098 -0.0147825 0.0764754
-0.0381754 -0.3653138 -0.2499641 -0.2995470
-0.3822668 -0.0877748 -0.1271987 -0.0414250
0.1572931 0.1794470 0.1237843 0.1744865
-0.0513155 -0.1776472 -0.1886343 -0.1267809
0.2135134 -0.1244356 -0.1151511 -0.2729304
0.1693497 0.1424077 0.0899257 -0.1677105
-0.2393635 0.0598548 -0.1320860 0.0446285
0.1730555 0.1555848 0.0637251 -0.0543114
-0.4877236 0.0452000 0.0577197 -0.1006936
-0.1080350 0.1400096 0.0249963 0.0063437
-0.1178566 0.0563166 -0.0566586 -0.0615485
0.1560979 -0.0184718 -0.2522155 -0.1779067
-0.1216176 0.0852636 -0.3748741 0.0387513
0.2274176 -0.1495099 0.0235905 -0.0577448
-0.0058644 0.0044713 -0.2572329 0.1137352
-0.0526930 -0.1459387 -0.0448184 -0.0143205
-0.2645116 0.0381882 -0.1124191 0.0507548
-0.1851153 -0.0351809 0.0672911 0.0768349
0.0043813 0.2931498 0.0616050 0.1664152
0.0908403 0.0687213 -0.2760246 -0.1485302
0.0221624 0.2143888 0.0207458 0.1561519
-0.0335523 0.1485912 0.2186391 0.0262487
0.1152031 0.0694694 0.2251975 0.1159016
0.0878451 -0.0486698 0.1807615 0.0514327
0.1266783 0.0938741 -0.0063335 -0.0027487
0.1852576 -0.1333667 0.1241939 0.0484551
-0.3238126 -0.1566144 -0.0690403 -0.0911466
-0.2638799 0.0709186 0.0309279 0.0616641
0.0784269 0.1992176 -0.0126964 -0.0142545
-0.0033712 0.2456862 -0.0339684 0.2016217
0.0591457 -0.0318261 0.1882593 0.0481806
0.0243485 0.0987121 0.0816385 0.0173288
0.1097042 -0.2028682 0.2369141 0.1755490
0.1036310 0.2121931 -0.2443060 -0.1426396
0.0147607 0.0788829 -0.0082701 -0.2443720
-0.0349437 -0.0337610 -0.0921914 -0.0920004
-0.0850076 0.3540788 0.1164461 -0.0252714
-0.0876568 -0.5543507 0.0241097 -0.0552062
0.0608088 -0.3410651 0.0823888 -0.1252387
-0.1209345 0.0848568 -0.1382048 0.1741773
